<?xml version="1.0"?>
<opencv_storage>
<cascade>
  <stageType>BOOST</stageType>
  <featureType>LBP</featureType>
  <height>24</height>
  <width>24</width>
  <stageParams>
    <boostType>GAB</boostType>
    <minHitRate>9.9500000476837158e-01</minHitRate>
    <maxFalseAlarm>5.0000000000000000e-01</maxFalseAlarm>
    <weightTrimRate>9.4999999999999996e-01</weightTrimRate>
    <maxDepth>1</maxDepth>
    <maxWeakCount>100</maxWeakCount></stageParams>
  <featureParams>
    <maxCatCount>256</maxCatCount>
    <featSize>1</featSize></featureParams>
  <stageNum>9</stageNum>
  <stages>
    <!-- stage 0 -->
    <_>
      <maxWeakCount>2</maxWeakCount>
      <stageThreshold>-1.3180500268936157e-01</stageThreshold>
      <weakClassifiers>
        <_>
          <internalNodes>
            0 -1 4 -707788817 -251346170 -1073741440 -754744829
            -268255102 -1996478070 -1069307765 -3671157</internalNodes>
          <leafValues>
            -9.6666663885116577e-01 8.8300836086273193e-01</leafValues></_>
        <_>
          <internalNodes>
            0 -1 15 -137364485 -788402039 1074235394 -783837935
            -360461685 -528449525 -2142649719 -547884325</internalNodes>
          <leafValues>
            -9.7216290235519409e-01 8.3486169576644897e-01</leafValues></_></weakClassifiers></_>
    <!-- stage 1 -->
    <_>
      <maxWeakCount>2</maxWeakCount>
      <stageThreshold>-1.0737065225839615e-01</stageThreshold>
      <weakClassifiers>
        <_>
          <internalNodes>
            0 -1 7 -789793 -6565675 2021741439 -77604577 -1010588949
            -81796981 -288625665 -1056769</internalNodes>
          <leafValues>
            -9.3586874008178711e-01 8.7573963403701782e-01</leafValues></_>
        <_>
          <internalNodes>
            0 -1 13 -10487937 -11404869 1225097567 -111689211
            -1216246785 -1148116853 1930369983 -10502401</internalNodes>
          <leafValues>
            -9.5755928754806519e-01 8.2849812507629395e-01</leafValues></_></weakClassifiers></_>
    <!-- stage 2 -->
    <_>
      <maxWeakCount>3</maxWeakCount>
      <stageThreshold>-1.0944757461547852e+00</stageThreshold>
      <weakClassifiers>
        <_>
          <internalNodes>
            0 -1 11 -35652613 -6438117 1465631707 -2369325 -84479809
            -373515302 -1879054133 -272214</internalNodes>
          <leafValues>
            -9.5381063222885132e-01 7.3684209585189819e-01</leafValues></_>
        <_>
          <internalNodes>
            0 -1 19 -69208321 -221533966 -711727793 -11523 -219155473
            -1610887016 -40913009 -4369</internalNodes>
          <leafValues>
            -9.0437877178192139e-01 8.3282136917114258e-01</leafValues></_>
        <_>
          <internalNodes>
            0 -1 5 -271105 -537441889 -1711296033 1460917751 -201606481
            -75251506 -1051665 -547357701</internalNodes>
          <leafValues>
            -9.2693912982940674e-01 7.8139269351959229e-01</leafValues></_></weakClassifiers></_>
    <!-- stage 3 -->
    <_>
      <maxWeakCount>2</maxWeakCount>
      <stageThreshold>-3.3375796675682068e-01</stageThreshold>
      <weakClassifiers>
        <_>
          <internalNodes>
            0 -1 17 -8398082 -2108706 -795116805 -245409673 -158598262
            -71642615 -611517441 -1049601</internalNodes>
          <leafValues>
            -9.5761382579803467e-01 6.4444446563720703e-01</leafValues></_>
        <_>
          <internalNodes>
            0 -1 9 -41952261 -671362565 -40371461 -11281710 -100668417
            -6305109 -5510405 -5382</internalNodes>
          <leafValues>
            -9.7820240259170532e-01 6.8848794698715210e-01</leafValues></_></weakClassifiers></_>
    <!-- stage 4 -->
    <_>
      <maxWeakCount>3</maxWeakCount>
      <stageThreshold>-1.1828728914260864e+00</stageThreshold>
      <weakClassifiers>
        <_>
          <internalNodes>
            0 -1 18 -38010885 -7871770 -537930881 -3159313 -73664021
            -7359542 -351535105 -2098209</internalNodes>
          <leafValues>
            -9.4338178634643555e-01 7.3655915260314941e-01</leafValues></_>
        <_>
          <internalNodes>
            0 -1 1 -705308694 -103816725 -133695286 -8391681 -88080946
            -85022298 -70385665 -9217</internalNodes>
          <leafValues>
            -9.5391625165939331e-01 6.7011815309524536e-01</leafValues></_>
        <_>
          <internalNodes>
            0 -1 10 -2115073 -2160606 -687220769 -537428485 -223376662
            -239170422 -1613760033 -1041</internalNodes>
          <leafValues>
            -9.0960931777954102e-01 7.7240312099456787e-01</leafValues></_></weakClassifiers></_>
    <!-- stage 5 -->
    <_>
      <maxWeakCount>2</maxWeakCount>
      <stageThreshold>-3.1469976902008057e-01</stageThreshold>
      <weakClassifiers>
        <_>
          <internalNodes>
            0 -1 3 -6292481 -85983281 -210503169 -673448993 -341836869
            -88935718 -67175425 -262145</internalNodes>
          <leafValues>
            -9.1861343383789062e-01 7.3863637447357178e-01</leafValues></_>
        <_>
          <internalNodes>
            0 -1 16 -170065924 -71566647 -838097509 -2644519 -212217445
            -626931829 -88360305 -1043</internalNodes>
          <leafValues>
            -9.8232918977737427e-01 6.0391366481781006e-01</leafValues></_></weakClassifiers></_>
    <!-- stage 6 -->
    <_>
      <maxWeakCount>2</maxWeakCount>
      <stageThreshold>-2.4542523920536041e-01</stageThreshold>
      <weakClassifiers>
        <_>
          <internalNodes>
            0 -1 2 -1 -1012754304 -249569921 -11276 -1425342529
            -1031128437 -678560833 -2103313</internalNodes>
          <leafValues>
            -9.0847712755203247e-01 7.2832369804382324e-01</leafValues></_>
        <_>
          <internalNodes>
            0 -1 6 -134228776 -748694051 -698879017 -543483941
            -100664641 -339091297 -70269985 -7341057</internalNodes>
          <leafValues>
            -9.5560038089752197e-01 6.6305190324783325e-01</leafValues></_></weakClassifiers></_>
    <!-- stage 7 -->
    <_>
      <maxWeakCount>3</maxWeakCount>
      <stageThreshold>-1.1957542896270752e+00</stageThreshold>
      <weakClassifiers>
        <_>
          <internalNodes>
            0 -1 12 -69345281 -35655201 -806103585 -156321 -21169654
            -34543112 -132161 -16843025</internalNodes>
          <leafValues>
            -9.2890262603759766e-01 6.3116884231567383e-01</leafValues></_>
        <_>
          <internalNodes>
            0 -1 14 -1 -1146657 932377087 -1074930695 -271846441
            -38276876 -142737409 -785</internalNodes>
          <leafValues>
            -8.9309448003768921e-01 7.6929587125778198e-01</leafValues></_>
        <_>
          <internalNodes>
            0 -1 20 -53484306 -11801621 -816985950 -3212321 -70189317
            -611591957 -543174657 -541327633</internalNodes>
          <leafValues>
            -9.8722529411315918e-01 6.2624281644821167e-01</leafValues></_></weakClassifiers></_>
    <!-- stage 8 -->
    <_>
      <maxWeakCount>3</maxWeakCount>
      <stageThreshold>-1.1315627098083496e+00</stageThreshold>
      <weakClassifiers>
        <_>
          <internalNodes>
            0 -1 8 -67110913 -8915977 1183183247 -538969831 -1461993541
            -1934957384 -1110443041 -536870913</internalNodes>
          <leafValues>
            -9.2105263471603394e-01 5.9689921140670776e-01</leafValues></_>
        <_>
          <internalNodes>
            0 -1 0 -136586241 -140551713 -151662370 -673197922
            -459685185 -75261023 -1597768769 -134481921</internalNodes>
          <leafValues>
            -8.9777439832687378e-01 7.2928136587142944e-01</leafValues></_>
        <_>
          <internalNodes>
            0 -1 12 -134750977 -35664387 1600122367 -3291681 -207751158
            -85160294 -69340244 -16986882</internalNodes>
          <leafValues>
            -9.3979150056838989e-01 6.9562178850173950e-01</leafValues></_></weakClassifiers></_></stages>
  <features>
    <_>
      <rect>
        0 9 8 5</rect></_>
    <_>
      <rect>
        0 11 2 1</rect></_>
    <_>
      <rect>
        3 7 1 1</rect></_>
    <_>
      <rect>
        4 7 3 3</rect></_>
    <_>
      <rect>
        4 7 3 4</rect></_>
    <_>
      <rect>
        4 12 2 2</rect></_>
    <_>
      <rect>
        5 13 1 2</rect></_>
    <_>
      <rect>
        5 16 3 2</rect></_>
    <_>
      <rect>
        6 6 2 2</rect></_>
    <_>
      <rect>
        7 13 3 2</rect></_>
    <_>
      <rect>
        9 4 2 2</rect></_>
    <_>
      <rect>
        9 14 2 2</rect></_>
    <_>
      <rect>
        10 2 3 2</rect></_>
    <_>
      <rect>
        10 4 3 3</rect></_>
    <_>
      <rect>
        11 7 3 3</rect></_>
    <_>
      <rect>
        11 11 3 3</rect></_>
    <_>
      <rect>
        11 18 1 2</rect></_>
    <_>
      <rect>
        13 5 2 1</rect></_>
    <_>
      <rect>
        13 14 2 2</rect></_>
    <_>
      <rect>
        16 10 2 3</rect></_>
    <_>
      <rect>
        17 12 2 1</rect></_></features></cascade>
</opencv_storage>
