<?xml version="1.0"?>
<opencv_storage>
<cascade>
  <stageType>BOOST</stageType>
  <featureType>LBP</featureType>
  <height>24</height>
  <width>24</width>
  <stageParams>
    <boostType>GAB</boostType>
    <minHitRate>9.9500000476837158e-01</minHitRate>
    <maxFalseAlarm>5.0000000000000000e-01</maxFalseAlarm>
    <weightTrimRate>9.4999999999999996e-01</weightTrimRate>
    <maxDepth>1</maxDepth>
    <maxWeakCount>100</maxWeakCount></stageParams>
  <featureParams>
    <maxCatCount>256</maxCatCount>
    <featSize>1</featSize></featureParams>
  <stageNum>7</stageNum>
  <stages>
    <!-- stage 0 -->
    <_>
      <maxWeakCount>2</maxWeakCount>
      <stageThreshold>-1.0042104870080948e-01</stageThreshold>
      <weakClassifiers>
        <_>
          <internalNodes>
            0 -1 13 -134479905 -46018021 -931037107 -716209697
            -1597521205 -1048460797 -880019313 -808452145</internalNodes>
          <leafValues>
            -9.8623853921890259e-01 8.7301588058471680e-01</leafValues></_>
        <_>
          <internalNodes>
            0 -1 6 -212864085 -267136509 -2139086848 -1023295485
            1073971715 -1073676287 1879228555 -210769937</internalNodes>
          <leafValues>
            -9.7343695163726807e-01 9.3316590785980225e-01</leafValues></_></weakClassifiers></_>
    <!-- stage 1 -->
    <_>
      <maxWeakCount>2</maxWeakCount>
      <stageThreshold>-1.4681215584278107e-01</stageThreshold>
      <weakClassifiers>
        <_>
          <internalNodes>
            0 -1 0 -141495297 -4075081 -718606209 -140545277 -2105484801
            -1176526705 -343308085 -7358033</internalNodes>
          <leafValues>
            -9.9232542514801025e-01 8.6874997615814209e-01</leafValues></_>
        <_>
          <internalNodes>
            0 -1 1 -536870913 -2121773 -1190596129 -14690685 -225735713
            -68431829 -3974977 -308657</internalNodes>
          <leafValues>
            -9.7699153423309326e-01 8.4551322460174561e-01</leafValues></_></weakClassifiers></_>
    <!-- stage 2 -->
    <_>
      <maxWeakCount>2</maxWeakCount>
      <stageThreshold>-1.1853972822427750e-01</stageThreshold>
      <weakClassifiers>
        <_>
          <internalNodes>
            0 -1 9 -8388609 -537677 -271067209 -2100225 -4210689
            -337921149 -140509185 -1858</internalNodes>
          <leafValues>
            -9.8629093170166016e-01 9.0322577953338623e-01</leafValues></_>
        <_>
          <internalNodes>
            0 -1 3 -6291457 -74449409 -4718689 -262185 -69222401
            -71331845 -808715329 -918549</internalNodes>
          <leafValues>
            -9.7411972284317017e-01 8.6775118112564087e-01</leafValues></_></weakClassifiers></_>
    <!-- stage 3 -->
    <_>
      <maxWeakCount>2</maxWeakCount>
      <stageThreshold>-1.9536027312278748e-01</stageThreshold>
      <weakClassifiers>
        <_>
          <internalNodes>
            0 -1 10 -243010677 -752103293 -251146103 -241187901
            -209328721 -1031044595 -1014772789 -1050641</internalNodes>
          <leafValues>
            -9.8149573802947998e-01 7.9141104221343994e-01</leafValues></_>
        <_>
          <internalNodes>
            0 -1 8 -713034973 -245377737 -2012773229 -101719509
            -75500853 -267156671 -125574165 -1048577</internalNodes>
          <leafValues>
            -9.7996830940246582e-01 7.8613549470901489e-01</leafValues></_></weakClassifiers></_>
    <!-- stage 4 -->
    <_>
      <maxWeakCount>2</maxWeakCount>
      <stageThreshold>-2.0268954336643219e-01</stageThreshold>
      <weakClassifiers>
        <_>
          <internalNodes>
            0 -1 11 -33554433 -2108961 -1928866081 -539717 -615252737
            -202658369 -120981249 -83887105</internalNodes>
          <leafValues>
            -9.5045047998428345e-01 8.6254292726516724e-01</leafValues></_>
        <_>
          <internalNodes>
            0 -1 7 -454561817 -70260813 -82866101 -5255201 -134745093
            -88434488 -611583013 -1049601</internalNodes>
          <leafValues>
            -9.8393684625625610e-01 7.4776089191436768e-01</leafValues></_></weakClassifiers></_>
    <!-- stage 5 -->
    <_>
      <maxWeakCount>3</maxWeakCount>
      <stageThreshold>-1.2058268785476685e+00</stageThreshold>
      <weakClassifiers>
        <_>
          <internalNodes>
            0 -1 14 -69207329 -3529 -792616193 -688926245 -90996018
            -355680094 -84149521 -83890433</internalNodes>
          <leafValues>
            -9.5572519302368164e-01 7.5718849897384644e-01</leafValues></_>
        <_>
          <internalNodes>
            0 -1 4 -537001985 -9224 -115894273 -33823247 -205538817
            -23074706 -86769665 -3145755</internalNodes>
          <leafValues>
            -9.6581661701202393e-01 7.1971476078033447e-01</leafValues></_>
        <_>
          <internalNodes>
            0 -1 2 -263169 -24593 1192381194 -140840550 -490223873
            -561266113 -345772070 -75759617</internalNodes>
          <leafValues>
            -9.6981650590896606e-01 7.4593901634216309e-01</leafValues></_></weakClassifiers></_>
    <!-- stage 6 -->
    <_>
      <maxWeakCount>2</maxWeakCount>
      <stageThreshold>-2.6538473367691040e-01</stageThreshold>
      <weakClassifiers>
        <_>
          <internalNodes>
            0 -1 5 1365244895 -7265 -673199905 -16181 -236980261 -28673
            -3175937 -263185</internalNodes>
          <leafValues>
            -9.6144950389862061e-01 7.1165645122528076e-01</leafValues></_>
        <_>
          <internalNodes>
            0 -1 12 -524289 -70282577 700822495 -3691533 -402670657
            -6310981 -67371041 -572784737</internalNodes>
          <leafValues>
            -9.7704118490219116e-01 7.1453756093978882e-01</leafValues></_></weakClassifiers></_></stages>
  <features>
    <_>
      <rect>
        0 4 6 5</rect></_>
    <_>
      <rect>
        0 14 4 3</rect></_>
    <_>
      <rect>
        2 9 2 4</rect></_>
    <_>
      <rect>
        2 9 5 4</rect></_>
    <_>
      <rect>
        3 1 2 2</rect></_>
    <_>
      <rect>
        4 4 2 4</rect></_>
    <_>
      <rect>
        5 1 2 5</rect></_>
    <_>
      <rect>
        7 4 1 3</rect></_>
    <_>
      <rect>
        9 2 1 4</rect></_>
    <_>
      <rect>
        9 10 4 4</rect></_>
    <_>
      <rect>
        12 4 1 3</rect></_>
    <_>
      <rect>
        13 1 3 2</rect></_>
    <_>
      <rect>
        15 11 3 3</rect></_>
    <_>
      <rect>
        15 14 3 2</rect></_>
    <_>
      <rect>
        20 5 1 1</rect></_></features></cascade>
</opencv_storage>
